<?xml version="1.0"?>
<opencv_storage>
<stage5>
  <maxWeakCount>8</maxWeakCount>
  <stageThreshold>-1.6178948879241943e+00</stageThreshold>
  <weakClassifiers>
    <_>
      <internalNodes>
        0 -1 48608 3.9682701230049133e-02</internalNodes>
      <leafValues>
        -6.8247425556182861e-01 5.8333331346511841e-01</leafValues></_>
    <_>
      <internalNodes>
        0 -1 27945 -3.7680618464946747e-02</internalNodes>
      <leafValues>
        4.9035778641700745e-01 -3.4358033537864685e-01</leafValues></_>
    <_>
      <internalNodes>
        0 -1 77343 -4.4286973774433136e-02</internalNodes>
      <leafValues>
        -7.1702170372009277e-01 2.1085947751998901e-01</leafValues></_>
    <_>
      <internalNodes>
        0 -1 66278 -2.5001164525747299e-02</internalNodes>
      <leafValues>
        -9.0595084428787231e-01 1.3992449641227722e-01</leafValues></_>
    <_>
      <internalNodes>
        0 -1 136135 2.5684410706162453e-02</internalNodes>
      <leafValues>
        1.4847745001316071e-01 -1.</leafValues></_>
    <_>
      <internalNodes>
        0 -1 150275 -2.0586741156876087e-03</internalNodes>
      <leafValues>
        -4.7643291950225830e-01 2.8276866674423218e-01</leafValues></_>
    <_>
      <internalNodes>
        0 -1 186657 1.4920344576239586e-02</internalNodes>
      <leafValues>
        -2.4555043876171112e-01 6.9659155607223511e-01</leafValues></_>
    <_>
      <internalNodes>
        0 -1 1386 -2.4830948095768690e-03</internalNodes>
      <leafValues>
        4.6804592013359070e-01 -3.6911836266517639e-01</leafValues></_></weakClassifiers></stage5>
</opencv_storage>
