<?xml version="1.0"?>
<opencv_storage>
<stage10>
  <maxWeakCount>9</maxWeakCount>
  <stageThreshold>-1.1146597862243652e+00</stageThreshold>
  <weakClassifiers>
    <_>
      <internalNodes>
        0 -1 181624 3.7268035113811493e-02</internalNodes>
      <leafValues>
        -6.7413443326950073e-01 7.7777779102325439e-01</leafValues></_>
    <_>
      <internalNodes>
        0 -1 96008 -3.3067663025576621e-05</internalNodes>
      <leafValues>
        1.6676178574562073e-01 -4.8364108800888062e-01</leafValues></_>
    <_>
      <internalNodes>
        0 -1 93561 -1.2323377653956413e-02</internalNodes>
      <leafValues>
        2.9633221030235291e-01 -4.4318810105323792e-01</leafValues></_>
    <_>
      <internalNodes>
        0 -1 179776 -3.6255689337849617e-03</internalNodes>
      <leafValues>
        5.1474535465240479e-01 -2.1782529354095459e-01</leafValues></_>
    <_>
      <internalNodes>
        0 -1 24280 1.9848679658025503e-03</internalNodes>
      <leafValues>
        1.3133525848388672e-01 -8.7976145744323730e-01</leafValues></_>
    <_>
      <internalNodes>
        0 -1 91755 2.3947325535118580e-03</internalNodes>
      <leafValues>
        -2.1666234731674194e-01 5.5891251564025879e-01</leafValues></_>
    <_>
      <internalNodes>
        0 -1 90321 4.2896019294857979e-04</internalNodes>
      <leafValues>
        -3.3591741323471069e-01 3.6814856529235840e-01</leafValues></_>
    <_>
      <internalNodes>
        0 -1 14700 -1.3365739723667502e-03</internalNodes>
      <leafValues>
        -7.0701861381530762e-01 2.0578631758689880e-01</leafValues></_>
    <_>
      <internalNodes>
        0 -1 152983 4.6871631639078259e-04</internalNodes>
      <leafValues>
        -3.0896043777465820e-01 4.0641441941261292e-01</leafValues></_></weakClassifiers></stage10>
</opencv_storage>
