<?xml version="1.0"?>
<opencv_storage>
<stage14>
  <maxWeakCount>7</maxWeakCount>
  <stageThreshold>-1.6099002361297607e+00</stageThreshold>
  <weakClassifiers>
    <_>
      <internalNodes>
        0 -1 116335 3.3428922295570374e-02</internalNodes>
      <leafValues>
        -6.9008266925811768e-01 6.8000000715255737e-01</leafValues></_>
    <_>
      <internalNodes>
        0 -1 39470 1.9469888880848885e-02</internalNodes>
      <leafValues>
        1.1277690529823303e-01 -8.0632704496383667e-01</leafValues></_>
    <_>
      <internalNodes>
        0 -1 118719 2.8311060741543770e-03</internalNodes>
      <leafValues>
        -3.0695915222167969e-01 6.2610733509063721e-01</leafValues></_>
    <_>
      <internalNodes>
        0 -1 12359 2.9140729457139969e-02</internalNodes>
      <leafValues>
        2.4552728235721588e-01 -7.9632663726806641e-01</leafValues></_>
    <_>
      <internalNodes>
        0 -1 22615 -1.1041475227102637e-03</internalNodes>
      <leafValues>
        -7.4271780252456665e-01 2.1107062697410583e-01</leafValues></_>
    <_>
      <internalNodes>
        0 -1 136544 3.0671100830659270e-04</internalNodes>
      <leafValues>
        -2.9531291127204895e-01 6.9797897338867188e-01</leafValues></_>
    <_>
      <internalNodes>
        0 -1 140247 -1.4129657065495849e-03</internalNodes>
      <leafValues>
        6.2396579980850220e-01 -2.9604503512382507e-01</leafValues></_></weakClassifiers></stage14>
</opencv_storage>
