<?xml version="1.0"?>
<opencv_storage>
<stage12>
  <maxWeakCount>8</maxWeakCount>
  <stageThreshold>-1.5232580900192261e+00</stageThreshold>
  <weakClassifiers>
    <_>
      <internalNodes>
        0 -1 55224 -1.9141931086778641e-02</internalNodes>
      <leafValues>
        2.1052631735801697e-01 -6.9002121686935425e-01</leafValues></_>
    <_>
      <internalNodes>
        0 -1 31832 2.6052046567201614e-02</internalNodes>
      <leafValues>
        2.0426888763904572e-01 -5.1603919267654419e-01</leafValues></_>
    <_>
      <internalNodes>
        0 -1 55949 1.3587800785899162e-03</internalNodes>
      <leafValues>
        -2.6625519990921021e-01 5.3063416481018066e-01</leafValues></_>
    <_>
      <internalNodes>
        0 -1 165307 1.5236800536513329e-02</internalNodes>
      <leafValues>
        -1.5699203312397003e-01 8.3055055141448975e-01</leafValues></_>
    <_>
      <internalNodes>
        0 -1 181344 -2.5005940347909927e-02</internalNodes>
      <leafValues>
        -7.7854508161544800e-01 1.9393821060657501e-01</leafValues></_>
    <_>
      <internalNodes>
        0 -1 20217 5.2022337913513184e-02</internalNodes>
      <leafValues>
        -1.9058980047702789e-01 6.4323776960372925e-01</leafValues></_>
    <_>
      <internalNodes>
        0 -1 27028 -7.4127587140537798e-05</internalNodes>
      <leafValues>
        3.6789515614509583e-01 -3.9785739779472351e-01</leafValues></_>
    <_>
      <internalNodes>
        0 -1 36240 1.4854195713996887e-01</internalNodes>
      <leafValues>
        -2.9633083939552307e-01 4.5216989517211914e-01</leafValues></_></weakClassifiers></stage12>
</opencv_storage>
