<?xml version="1.0"?>
<opencv_storage>
<stage3>
  <maxWeakCount>6</maxWeakCount>
  <stageThreshold>-1.2169615030288696e+00</stageThreshold>
  <weakClassifiers>
    <_>
      <internalNodes>
        0 -1 3171 9.8908945918083191e-02</internalNodes>
      <leafValues>
        -7.0649898052215576e-01 6.2500000000000000e-01</leafValues></_>
    <_>
      <internalNodes>
        0 -1 149820 -4.7052595764398575e-03</internalNodes>
      <leafValues>
        5.7124197483062744e-01 -3.6334738135337830e-01</leafValues></_>
    <_>
      <internalNodes>
        0 -1 43398 -2.4161583278328180e-03</internalNodes>
      <leafValues>
        -7.5804239511489868e-01 2.3793019354343414e-01</leafValues></_>
    <_>
      <internalNodes>
        0 -1 59936 1.1867348849773407e-01</internalNodes>
      <leafValues>
        -3.3910802006721497e-01 5.3639507293701172e-01</leafValues></_>
    <_>
      <internalNodes>
        0 -1 42470 -3.0679212883114815e-02</internalNodes>
      <leafValues>
        5.1568645238876343e-01 -3.7252691388130188e-01</leafValues></_>
    <_>
      <internalNodes>
        0 -1 132921 -1.4699369203299284e-03</internalNodes>
      <leafValues>
        4.4705897569656372e-01 -4.2110770940780640e-01</leafValues></_></weakClassifiers></stage3>
</opencv_storage>
