<?xml version="1.0"?>
<opencv_storage>
<stage11>
  <maxWeakCount>9</maxWeakCount>
  <stageThreshold>-1.0929673910140991e+00</stageThreshold>
  <weakClassifiers>
    <_>
      <internalNodes>
        0 -1 36837 4.8424765467643738e-02</internalNodes>
      <leafValues>
        -6.7006111145019531e-01 6.6666668653488159e-01</leafValues></_>
    <_>
      <internalNodes>
        0 -1 108019 3.9421997964382172e-02</internalNodes>
      <leafValues>
        -4.7199061512947083e-01 2.0930562913417816e-01</leafValues></_>
    <_>
      <internalNodes>
        0 -1 55073 3.5371477715671062e-03</internalNodes>
      <leafValues>
        1.5467904508113861e-01 -7.0648354291915894e-01</leafValues></_>
    <_>
      <internalNodes>
        0 -1 169027 -4.3460313463583589e-04</internalNodes>
      <leafValues>
        3.6852401494979858e-01 -3.3822092413902283e-01</leafValues></_>
    <_>
      <internalNodes>
        0 -1 145768 -2.6996077969670296e-02</internalNodes>
      <leafValues>
        -8.1184190511703491e-01 1.3681247830390930e-01</leafValues></_>
    <_>
      <internalNodes>
        0 -1 159545 -9.6420403569936752e-03</internalNodes>
      <leafValues>
        8.2806617021560669e-01 -1.7312407493591309e-01</leafValues></_>
    <_>
      <internalNodes>
        0 -1 42658 9.8994234576821327e-04</internalNodes>
      <leafValues>
        1.6325332224369049e-01 -8.6857968568801880e-01</leafValues></_>
    <_>
      <internalNodes>
        0 -1 180547 1.2759638484567404e-03</internalNodes>
      <leafValues>
        1.5027460455894470e-01 -6.7234063148498535e-01</leafValues></_>
    <_>
      <internalNodes>
        0 -1 51779 2.7809161110781133e-04</internalNodes>
      <leafValues>
        1.9731934368610382e-01 -5.1555842161178589e-01</leafValues></_></weakClassifiers></stage11>
</opencv_storage>
